digraph Tree {
node [shape=box, style="filled, rounded", color="black", fontname=helvetica] ;
edge [fontname=helvetica] ;
0 [label="Sex_female <= 0.5\nentropy = 0.968\nsamples = 712\nvalue = [431, 281]\nclass = 0", fillcolor="#f6d3ba"] ;
1 [label="Fare <= 7.91\nentropy = 0.731\nsamples = 459\nvalue = [365, 94]\nclass = 0", fillcolor="#eca16c"] ;
0 -> 1 [labeldistance=2.5, labelangle=45, headlabel="True"] ;
2 [label="Age <= 29.85\nentropy = 0.373\nsamples = 139\nvalue = [129, 10]\nclass = 0", fillcolor="#e78b48"] ;
1 -> 2 ;
3 [label="Embarked_Q <= 0.5\nentropy = 0.451\nsamples = 106\nvalue = [96, 10]\nclass = 0", fillcolor="#e88e4e"] ;
2 -> 3 ;
4 [label="Fare <= 7.798\nentropy = 0.503\nsamples = 90\nvalue = [80, 10]\nclass = 0", fillcolor="#e89152"] ;
3 -> 4 ;
5 [label="Age <= 19.5\nentropy = 0.643\nsamples = 55\nvalue = [46, 9]\nclass = 0", fillcolor="#ea9a60"] ;
4 -> 5 ;
6 [label="entropy = 0.0\nsamples = 10\nvalue = [10, 0]\nclass = 0", fillcolor="#e58139"] ;
5 -> 6 ;
7 [label="Fare <= 7.713\nentropy = 0.722\nsamples = 45\nvalue = [36, 9]\nclass = 0", fillcolor="#eca06a"] ;
5 -> 7 ;
8 [label="Fare <= 7.24\nentropy = 0.592\nsamples = 35\nvalue = [30, 5]\nclass = 0", fillcolor="#e9965a"] ;
7 -> 8 ;
9 [label="Age <= 28.0\nentropy = 0.755\nsamples = 23\nvalue = [18, 5]\nclass = 0", fillcolor="#eca470"] ;
8 -> 9 ;
10 [label="Age <= 26.0\nentropy = 0.971\nsamples = 10\nvalue = [6, 4]\nclass = 0", fillcolor="#f6d5bd"] ;
9 -> 10 ;
11 [label="Fare <= 7.096\nentropy = 0.918\nsamples = 9\nvalue = [6, 3]\nclass = 0", fillcolor="#f2c09c"] ;
10 -> 11 ;
12 [label="entropy = 0.0\nsamples = 4\nvalue = [4, 0]\nclass = 0", fillcolor="#e58139"] ;
11 -> 12 ;
13 [label="Age <= 22.75\nentropy = 0.971\nsamples = 5\nvalue = [2, 3]\nclass = 1", fillcolor="#bddef6"] ;
11 -> 13 ;
14 [label="entropy = 0.0\nsamples = 2\nvalue = [0, 2]\nclass = 1", fillcolor="#399de5"] ;
13 -> 14 ;
15 [label="Embarked_S <= 0.5\nentropy = 0.918\nsamples = 3\nvalue = [2, 1]\nclass = 0", fillcolor="#f2c09c"] ;
13 -> 15 ;
16 [label="entropy = 0.0\nsamples = 2\nvalue = [2, 0]\nclass = 0", fillcolor="#e58139"] ;
15 -> 16 ;
17 [label="entropy = 0.0\nsamples = 1\nvalue = [0, 1]\nclass = 1", fillcolor="#399de5"] ;
15 -> 17 ;
18 [label="entropy = 0.0\nsamples = 1\nvalue = [0, 1]\nclass = 1", fillcolor="#399de5"] ;
10 -> 18 ;
19 [label="Fare <= 7.227\nentropy = 0.391\nsamples = 13\nvalue = [12, 1]\nclass = 0", fillcolor="#e78c49"] ;
9 -> 19 ;
20 [label="entropy = 0.0\nsamples = 8\nvalue = [8, 0]\nclass = 0", fillcolor="#e58139"] ;
19 -> 20 ;
21 [label="entropy = 0.722\nsamples = 5\nvalue = [4, 1]\nclass = 0", fillcolor="#eca06a"] ;
19 -> 21 ;
22 [label="entropy = 0.0\nsamples = 12\nvalue = [12, 0]\nclass = 0", fillcolor="#e58139"] ;
8 -> 22 ;
23 [label="SibSp <= 0.5\nentropy = 0.971\nsamples = 10\nvalue = [6, 4]\nclass = 0", fillcolor="#f6d5bd"] ;
7 -> 23 ;
24 [label="Fare <= 7.785\nentropy = 0.918\nsamples = 9\nvalue = [6, 3]\nclass = 0", fillcolor="#f2c09c"] ;
23 -> 24 ;
25 [label="Age <= 29.35\nentropy = 0.722\nsamples = 5\nvalue = [4, 1]\nclass = 0", fillcolor="#eca06a"] ;
24 -> 25 ;
26 [label="entropy = 0.0\nsamples = 3\nvalue = [3, 0]\nclass = 0", fillcolor="#e58139"] ;
25 -> 26 ;
27 [label="entropy = 1.0\nsamples = 2\nvalue = [1, 1]\nclass = 0", fillcolor="#ffffff"] ;
25 -> 27 ;
28 [label="Age <= 22.5\nentropy = 1.0\nsamples = 4\nvalue = [2, 2]\nclass = 0", fillcolor="#ffffff"] ;
24 -> 28 ;
29 [label="entropy = 0.0\nsamples = 1\nvalue = [0, 1]\nclass = 1", fillcolor="#399de5"] ;
28 -> 29 ;
30 [label="Age <= 25.5\nentropy = 0.918\nsamples = 3\nvalue = [2, 1]\nclass = 0", fillcolor="#f2c09c"] ;
28 -> 30 ;
31 [label="entropy = 0.0\nsamples = 1\nvalue = [1, 0]\nclass = 0", fillcolor="#e58139"] ;
30 -> 31 ;
32 [label="entropy = 1.0\nsamples = 2\nvalue = [1, 1]\nclass = 0", fillcolor="#ffffff"] ;
30 -> 32 ;
33 [label="entropy = 0.0\nsamples = 1\nvalue = [0, 1]\nclass = 1", fillcolor="#399de5"] ;
23 -> 33 ;
34 [label="Embarked_C <= 0.5\nentropy = 0.187\nsamples = 35\nvalue = [34, 1]\nclass = 0", fillcolor="#e6853f"] ;
4 -> 34 ;
35 [label="entropy = 0.0\nsamples = 32\nvalue = [32, 0]\nclass = 0", fillcolor="#e58139"] ;
34 -> 35 ;
36 [label="Age <= 29.35\nentropy = 0.918\nsamples = 3\nvalue = [2, 1]\nclass = 0", fillcolor="#f2c09c"] ;
34 -> 36 ;
37 [label="entropy = 0.0\nsamples = 1\nvalue = [0, 1]\nclass = 1", fillcolor="#399de5"] ;
36 -> 37 ;
38 [label="entropy = 0.0\nsamples = 2\nvalue = [2, 0]\nclass = 0", fillcolor="#e58139"] ;
36 -> 38 ;
39 [label="entropy = 0.0\nsamples = 16\nvalue = [16, 0]\nclass = 0", fillcolor="#e58139"] ;
3 -> 39 ;
40 [label="entropy = 0.0\nsamples = 33\nvalue = [33, 0]\nclass = 0", fillcolor="#e58139"] ;
2 -> 40 ;
41 [label="Age <= 6.5\nentropy = 0.83\nsamples = 320\nvalue = [236, 84]\nclass = 0", fillcolor="#eeae7f"] ;
1 -> 41 ;
42 [label="SibSp <= 2.0\nentropy = 0.881\nsamples = 20\nvalue = [6, 14]\nclass = 1", fillcolor="#8ec7f0"] ;
41 -> 42 ;
43 [label="entropy = 0.0\nsamples = 13\nvalue = [0, 13]\nclass = 1", fillcolor="#399de5"] ;
42 -> 43 ;
44 [label="Fare <= 31.331\nentropy = 0.592\nsamples = 7\nvalue = [6, 1]\nclass = 0", fillcolor="#e9965a"] ;
42 -> 44 ;
45 [label="entropy = 0.0\nsamples = 4\nvalue = [4, 0]\nclass = 0", fillcolor="#e58139"] ;
44 -> 45 ;
46 [label="Age <= 2.5\nentropy = 0.918\nsamples = 3\nvalue = [2, 1]\nclass = 0", fillcolor="#f2c09c"] ;
44 -> 46 ;
47 [label="entropy = 0.0\nsamples = 2\nvalue = [2, 0]\nclass = 0", fillcolor="#e58139"] ;
46 -> 47 ;
48 [label="entropy = 0.0\nsamples = 1\nvalue = [0, 1]\nclass = 1", fillcolor="#399de5"] ;
46 -> 48 ;
49 [label="Pclass <= 1.5\nentropy = 0.784\nsamples = 300\nvalue = [230, 70]\nclass = 0", fillcolor="#eda775"] ;
41 -> 49 ;
50 [label="Age <= 53.0\nentropy = 0.957\nsamples = 95\nvalue = [59, 36]\nclass = 0", fillcolor="#f5ceb2"] ;
49 -> 50 ;
51 [label="Fare <= 27.135\nentropy = 0.988\nsamples = 78\nvalue = [44, 34]\nclass = 0", fillcolor="#f9e2d2"] ;
50 -> 51 ;
52 [label="Fare <= 26.144\nentropy = 0.811\nsamples = 12\nvalue = [3, 9]\nclass = 1", fillcolor="#7bbeee"] ;
51 -> 52 ;
53 [label="entropy = 0.0\nsamples = 2\nvalue = [2, 0]\nclass = 0", fillcolor="#e58139"] ;
52 -> 53 ;
54 [label="Age <= 43.5\nentropy = 0.469\nsamples = 10\nvalue = [1, 9]\nclass = 1", fillcolor="#4fa8e8"] ;
52 -> 54 ;
55 [label="entropy = 0.0\nsamples = 7\nvalue = [0, 7]\nclass = 1", fillcolor="#399de5"] ;
54 -> 55 ;
56 [label="Age <= 46.5\nentropy = 0.918\nsamples = 3\nvalue = [1, 2]\nclass = 1", fillcolor="#9ccef2"] ;
54 -> 56 ;
57 [label="entropy = 0.0\nsamples = 1\nvalue = [1, 0]\nclass = 0", fillcolor="#e58139"] ;
56 -> 57 ;
58 [label="entropy = 0.0\nsamples = 2\nvalue = [0, 2]\nclass = 1", fillcolor="#399de5"] ;
56 -> 58 ;
59 [label="Fare <= 29.1\nentropy = 0.957\nsamples = 66\nvalue = [41, 25]\nclass = 0", fillcolor="#f5ceb2"] ;
51 -> 59 ;
60 [label="entropy = 0.0\nsamples = 5\nvalue = [5, 0]\nclass = 0", fillcolor="#e58139"] ;
59 -> 60 ;
61 [label="Fare <= 387.665\nentropy = 0.976\nsamples = 61\nvalue = [36, 25]\nclass = 0", fillcolor="#f7d8c2"] ;
59 -> 61 ;
62 [label="Fare <= 134.642\nentropy = 0.965\nsamples = 59\nvalue = [36, 23]\nclass = 0", fillcolor="#f6d2b8"] ;
61 -> 62 ;
63 [label="Fare <= 109.892\nentropy = 0.99\nsamples = 52\nvalue = [29, 23]\nclass = 0", fillcolor="#fae5d6"] ;
62 -> 63 ;
64 [label="Fare <= 77.008\nentropy = 0.968\nsamples = 48\nvalue = [29, 19]\nclass = 0", fillcolor="#f6d4bb"] ;
63 -> 64 ;
65 [label="Fare <= 54.271\nentropy = 0.999\nsamples = 37\nvalue = [19, 18]\nclass = 0", fillcolor="#fef8f5"] ;
64 -> 65 ;
66 [label="Age <= 47.5\nentropy = 0.971\nsamples = 30\nvalue = [18, 12]\nclass = 0", fillcolor="#f6d5bd"] ;
65 -> 66 ;
67 [label="Age <= 43.5\nentropy = 0.94\nsamples = 28\nvalue = [18, 10]\nclass = 0", fillcolor="#f3c7a7"] ;
66 -> 67 ;
68 [label="Fare <= 37.55\nentropy = 0.98\nsamples = 24\nvalue = [14, 10]\nclass = 0", fillcolor="#f8dbc6"] ;
67 -> 68 ;
69 [label="Parch <= 0.5\nentropy = 0.946\nsamples = 11\nvalue = [4, 7]\nclass = 1", fillcolor="#aad5f4"] ;
68 -> 69 ;
70 [label="Embarked_S <= 0.5\nentropy = 0.881\nsamples = 10\nvalue = [3, 7]\nclass = 1", fillcolor="#8ec7f0"] ;
69 -> 70 ;
71 [label="entropy = 0.0\nsamples = 3\nvalue = [0, 3]\nclass = 1", fillcolor="#399de5"] ;
70 -> 71 ;
72 [label="Age <= 28.5\nentropy = 0.985\nsamples = 7\nvalue = [3, 4]\nclass = 1", fillcolor="#cee6f8"] ;
70 -> 72 ;
73 [label="entropy = 0.0\nsamples = 2\nvalue = [0, 2]\nclass = 1", fillcolor="#399de5"] ;
72 -> 73 ;
74 [label="Fare <= 35.25\nentropy = 0.971\nsamples = 5\nvalue = [3, 2]\nclass = 0", fillcolor="#f6d5bd"] ;
72 -> 74 ;
75 [label="Fare <= 30.5\nentropy = 0.811\nsamples = 4\nvalue = [3, 1]\nclass = 0", fillcolor="#eeab7b"] ;
74 -> 75 ;
76 [label="entropy = 1.0\nsamples = 2\nvalue = [1, 1]\nclass = 0", fillcolor="#ffffff"] ;
75 -> 76 ;
77 [label="entropy = 0.0\nsamples = 2\nvalue = [2, 0]\nclass = 0", fillcolor="#e58139"] ;
75 -> 77 ;
78 [label="entropy = 0.0\nsamples = 1\nvalue = [0, 1]\nclass = 1", fillcolor="#399de5"] ;
74 -> 78 ;
79 [label="entropy = 0.0\nsamples = 1\nvalue = [1, 0]\nclass = 0", fillcolor="#e58139"] ;
69 -> 79 ;
80 [label="Fare <= 52.277\nentropy = 0.779\nsamples = 13\nvalue = [10, 3]\nclass = 0", fillcolor="#eda774"] ;
68 -> 80 ;
81 [label="entropy = 0.0\nsamples = 8\nvalue = [8, 0]\nclass = 0", fillcolor="#e58139"] ;
80 -> 81 ;
82 [label="Fare <= 52.827\nentropy = 0.971\nsamples = 5\nvalue = [2, 3]\nclass = 1", fillcolor="#bddef6"] ;
80 -> 82 ;
83 [label="entropy = 0.0\nsamples = 2\nvalue = [0, 2]\nclass = 1", fillcolor="#399de5"] ;
82 -> 83 ;
84 [label="Age <= 23.0\nentropy = 0.918\nsamples = 3\nvalue = [2, 1]\nclass = 0", fillcolor="#f2c09c"] ;
82 -> 84 ;
85 [label="entropy = 0.0\nsamples = 1\nvalue = [1, 0]\nclass = 0", fillcolor="#e58139"] ;
84 -> 85 ;
86 [label="entropy = 1.0\nsamples = 2\nvalue = [1, 1]\nclass = 0", fillcolor="#ffffff"] ;
84 -> 86 ;
87 [label="entropy = 0.0\nsamples = 4\nvalue = [4, 0]\nclass = 0", fillcolor="#e58139"] ;
67 -> 87 ;
88 [label="entropy = 0.0\nsamples = 2\nvalue = [0, 2]\nclass = 1", fillcolor="#399de5"] ;
66 -> 88 ;
89 [label="Age <= 50.0\nentropy = 0.592\nsamples = 7\nvalue = [1, 6]\nclass = 1", fillcolor="#5aade9"] ;
65 -> 89 ;
90 [label="entropy = 0.0\nsamples = 6\nvalue = [0, 6]\nclass = 1", fillcolor="#399de5"] ;
89 -> 90 ;
91 [label="entropy = 0.0\nsamples = 1\nvalue = [1, 0]\nclass = 0", fillcolor="#e58139"] ;
89 -> 91 ;
92 [label="Fare <= 86.737\nentropy = 0.439\nsamples = 11\nvalue = [10, 1]\nclass = 0", fillcolor="#e88e4d"] ;
64 -> 92 ;
93 [label="entropy = 0.0\nsamples = 7\nvalue = [7, 0]\nclass = 0", fillcolor="#e58139"] ;
92 -> 93 ;
94 [label="Embarked_S <= 0.5\nentropy = 0.811\nsamples = 4\nvalue = [3, 1]\nclass = 0", fillcolor="#eeab7b"] ;
92 -> 94 ;
95 [label="entropy = 0.0\nsamples = 3\nvalue = [3, 0]\nclass = 0", fillcolor="#e58139"] ;
94 -> 95 ;
96 [label="entropy = 0.0\nsamples = 1\nvalue = [0, 1]\nclass = 1", fillcolor="#399de5"] ;
94 -> 96 ;
97 [label="entropy = 0.0\nsamples = 4\nvalue = [0, 4]\nclass = 1", fillcolor="#399de5"] ;
63 -> 97 ;
98 [label="entropy = 0.0\nsamples = 7\nvalue = [7, 0]\nclass = 0", fillcolor="#e58139"] ;
62 -> 98 ;
99 [label="entropy = 0.0\nsamples = 2\nvalue = [0, 2]\nclass = 1", fillcolor="#399de5"] ;
61 -> 99 ;
100 [label="Age <= 75.5\nentropy = 0.523\nsamples = 17\nvalue = [15, 2]\nclass = 0", fillcolor="#e89253"] ;
50 -> 100 ;
101 [label="SibSp <= 0.5\nentropy = 0.337\nsamples = 16\nvalue = [15, 1]\nclass = 0", fillcolor="#e78946"] ;
100 -> 101 ;
102 [label="entropy = 0.0\nsamples = 14\nvalue = [14, 0]\nclass = 0", fillcolor="#e58139"] ;
101 -> 102 ;
103 [label="entropy = 1.0\nsamples = 2\nvalue = [1, 1]\nclass = 0", fillcolor="#ffffff"] ;
101 -> 103 ;
104 [label="entropy = 0.0\nsamples = 1\nvalue = [0, 1]\nclass = 1", fillcolor="#399de5"] ;
100 -> 104 ;
105 [label="Fare <= 7.988\nentropy = 0.648\nsamples = 205\nvalue = [171, 34]\nclass = 0", fillcolor="#ea9a60"] ;
49 -> 105 ;
106 [label="Age <= 41.5\nentropy = 0.994\nsamples = 11\nvalue = [6, 5]\nclass = 0", fillcolor="#fbeade"] ;
105 -> 106 ;
107 [label="SibSp <= 0.5\nentropy = 0.971\nsamples = 10\nvalue = [6, 4]\nclass = 0", fillcolor="#f6d5bd"] ;
106 -> 107 ;
108 [label="Age <= 26.0\nentropy = 0.918\nsamples = 9\nvalue = [6, 3]\nclass = 0", fillcolor="#f2c09c"] ;
107 -> 108 ;
109 [label="entropy = 0.0\nsamples = 3\nvalue = [3, 0]\nclass = 0", fillcolor="#e58139"] ;
108 -> 109 ;
110 [label="Age <= 31.5\nentropy = 1.0\nsamples = 6\nvalue = [3, 3]\nclass = 0", fillcolor="#ffffff"] ;
108 -> 110 ;
111 [label="entropy = 0.0\nsamples = 1\nvalue = [0, 1]\nclass = 1", fillcolor="#399de5"] ;
110 -> 111 ;
112 [label="Age <= 35.5\nentropy = 0.971\nsamples = 5\nvalue = [3, 2]\nclass = 0", fillcolor="#f6d5bd"] ;
110 -> 112 ;
113 [label="entropy = 0.918\nsamples = 3\nvalue = [2, 1]\nclass = 0", fillcolor="#f2c09c"] ;
112 -> 113 ;
114 [label="entropy = 1.0\nsamples = 2\nvalue = [1, 1]\nclass = 0", fillcolor="#ffffff"] ;
112 -> 114 ;
115 [label="entropy = 0.0\nsamples = 1\nvalue = [0, 1]\nclass = 1", fillcolor="#399de5"] ;
107 -> 115 ;
116 [label="entropy = 0.0\nsamples = 1\nvalue = [0, 1]\nclass = 1", fillcolor="#399de5"] ;
106 -> 116 ;
117 [label="SibSp <= 2.5\nentropy = 0.609\nsamples = 194\nvalue = [165, 29]\nclass = 0", fillcolor="#ea975c"] ;
105 -> 117 ;
118 [label="Age <= 10.0\nentropy = 0.637\nsamples = 180\nvalue = [151, 29]\nclass = 0", fillcolor="#ea995f"] ;
117 -> 118 ;
119 [label="entropy = 0.0\nsamples = 3\nvalue = [0, 3]\nclass = 1", fillcolor="#399de5"] ;
118 -> 119 ;
120 [label="Fare <= 49.038\nentropy = 0.602\nsamples = 177\nvalue = [151, 26]\nclass = 0", fillcolor="#e9975b"] ;
118 -> 120 ;
121 [label="Embarked_C <= 0.5\nentropy = 0.548\nsamples = 166\nvalue = [145, 21]\nclass = 0", fillcolor="#e99356"] ;
120 -> 121 ;
122 [label="Fare <= 13.25\nentropy = 0.49\nsamples = 150\nvalue = [134, 16]\nclass = 0", fillcolor="#e89051"] ;
121 -> 122 ;
123 [label="Age <= 28.5\nentropy = 0.581\nsamples = 101\nvalue = [87, 14]\nclass = 0", fillcolor="#e99559"] ;
122 -> 123 ;
124 [label="Age <= 19.5\nentropy = 0.426\nsamples = 46\nvalue = [42, 4]\nclass = 0", fillcolor="#e78d4c"] ;
123 -> 124 ;
125 [label="Fare <= 8.104\nentropy = 0.787\nsamples = 17\nvalue = [13, 4]\nclass = 0", fillcolor="#eda876"] ;
124 -> 125 ;
126 [label="Age <= 17.0\nentropy = 0.971\nsamples = 5\nvalue = [2, 3]\nclass = 1", fillcolor="#bddef6"] ;
125 -> 126 ;
127 [label="entropy = 1.0\nsamples = 2\nvalue = [1, 1]\nclass = 0", fillcolor="#ffffff"] ;
126 -> 127 ;
128 [label="Age <= 18.5\nentropy = 0.918\nsamples = 3\nvalue = [1, 2]\nclass = 1", fillcolor="#9ccef2"] ;
126 -> 128 ;
129 [label="entropy = 0.0\nsamples = 1\nvalue = [0, 1]\nclass = 1", fillcolor="#399de5"] ;
128 -> 129 ;
130 [label="entropy = 1.0\nsamples = 2\nvalue = [1, 1]\nclass = 0", fillcolor="#ffffff"] ;
128 -> 130 ;
131 [label="Age <= 18.5\nentropy = 0.414\nsamples = 12\nvalue = [11, 1]\nclass = 0", fillcolor="#e78c4b"] ;
125 -> 131 ;
132 [label="entropy = 0.0\nsamples = 8\nvalue = [8, 0]\nclass = 0", fillcolor="#e58139"] ;
131 -> 132 ;
133 [label="Fare <= 10.335\nentropy = 0.811\nsamples = 4\nvalue = [3, 1]\nclass = 0", fillcolor="#eeab7b"] ;
131 -> 133 ;
134 [label="entropy = 0.0\nsamples = 2\nvalue = [2, 0]\nclass = 0", fillcolor="#e58139"] ;
133 -> 134 ;
135 [label="entropy = 1.0\nsamples = 2\nvalue = [1, 1]\nclass = 0", fillcolor="#ffffff"] ;
133 -> 135 ;
136 [label="entropy = 0.0\nsamples = 29\nvalue = [29, 0]\nclass = 0", fillcolor="#e58139"] ;
124 -> 136 ;
137 [label="Fare <= 9.492\nentropy = 0.684\nsamples = 55\nvalue = [45, 10]\nclass = 0", fillcolor="#eb9d65"] ;
123 -> 137 ;
138 [label="Fare <= 8.258\nentropy = 0.491\nsamples = 28\nvalue = [25, 3]\nclass = 0", fillcolor="#e89051"] ;
137 -> 138 ;
139 [label="Fare <= 8.081\nentropy = 0.592\nsamples = 21\nvalue = [18, 3]\nclass = 0", fillcolor="#e9965a"] ;
138 -> 139 ;
140 [label="Age <= 31.0\nentropy = 0.469\nsamples = 20\nvalue = [18, 2]\nclass = 0", fillcolor="#e88f4f"] ;
139 -> 140 ;
141 [label="entropy = 0.0\nsamples = 9\nvalue = [9, 0]\nclass = 0", fillcolor="#e58139"] ;
140 -> 141 ;
142 [label="Age <= 33.0\nentropy = 0.684\nsamples = 11\nvalue = [9, 2]\nclass = 0", fillcolor="#eb9d65"] ;
140 -> 142 ;
143 [label="entropy = 0.0\nsamples = 1\nvalue = [0, 1]\nclass = 1", fillcolor="#399de5"] ;
142 -> 143 ;
144 [label="Age <= 44.5\nentropy = 0.469\nsamples = 10\nvalue = [9, 1]\nclass = 0", fillcolor="#e88f4f"] ;
142 -> 144 ;
145 [label="entropy = 0.0\nsamples = 6\nvalue = [6, 0]\nclass = 0", fillcolor="#e58139"] ;
144 -> 145 ;
146 [label="Age <= 47.5\nentropy = 0.811\nsamples = 4\nvalue = [3, 1]\nclass = 0", fillcolor="#eeab7b"] ;
144 -> 146 ;
147 [label="entropy = 0.0\nsamples = 1\nvalue = [0, 1]\nclass = 1", fillcolor="#399de5"] ;
146 -> 147 ;
148 [label="entropy = 0.0\nsamples = 3\nvalue = [3, 0]\nclass = 0", fillcolor="#e58139"] ;
146 -> 148 ;
149 [label="entropy = 0.0\nsamples = 1\nvalue = [0, 1]\nclass = 1", fillcolor="#399de5"] ;
139 -> 149 ;
150 [label="entropy = 0.0\nsamples = 7\nvalue = [7, 0]\nclass = 0", fillcolor="#e58139"] ;
138 -> 150 ;
151 [label="Fare <= 10.0\nentropy = 0.826\nsamples = 27\nvalue = [20, 7]\nclass = 0", fillcolor="#eead7e"] ;
137 -> 151 ;
152 [label="Age <= 29.35\nentropy = 1.0\nsamples = 4\nvalue = [2, 2]\nclass = 0", fillcolor="#ffffff"] ;
151 -> 152 ;
153 [label="entropy = 0.0\nsamples = 1\nvalue = [0, 1]\nclass = 1", fillcolor="#399de5"] ;
152 -> 153 ;
154 [label="Age <= 29.85\nentropy = 0.918\nsamples = 3\nvalue = [2, 1]\nclass = 0", fillcolor="#f2c09c"] ;
152 -> 154 ;
155 [label="entropy = 0.0\nsamples = 1\nvalue = [1, 0]\nclass = 0", fillcolor="#e58139"] ;
154 -> 155 ;
156 [label="entropy = 1.0\nsamples = 2\nvalue = [1, 1]\nclass = 0", fillcolor="#ffffff"] ;
154 -> 156 ;
157 [label="Fare <= 12.762\nentropy = 0.755\nsamples = 23\nvalue = [18, 5]\nclass = 0", fillcolor="#eca470"] ;
151 -> 157 ;
158 [label="Age <= 56.5\nentropy = 0.469\nsamples = 10\nvalue = [9, 1]\nclass = 0", fillcolor="#e88f4f"] ;
157 -> 158 ;
159 [label="entropy = 0.0\nsamples = 7\nvalue = [7, 0]\nclass = 0", fillcolor="#e58139"] ;
158 -> 159 ;
160 [label="Age <= 64.0\nentropy = 0.918\nsamples = 3\nvalue = [2, 1]\nclass = 0", fillcolor="#f2c09c"] ;
158 -> 160 ;
161 [label="entropy = 0.0\nsamples = 1\nvalue = [0, 1]\nclass = 1", fillcolor="#399de5"] ;
160 -> 161 ;
162 [label="entropy = 0.0\nsamples = 2\nvalue = [2, 0]\nclass = 0", fillcolor="#e58139"] ;
160 -> 162 ;
163 [label="Age <= 29.85\nentropy = 0.89\nsamples = 13\nvalue = [9, 4]\nclass = 0", fillcolor="#f1b991"] ;
157 -> 163 ;
164 [label="entropy = 0.0\nsamples = 1\nvalue = [0, 1]\nclass = 1", fillcolor="#399de5"] ;
163 -> 164 ;
165 [label="Age <= 30.5\nentropy = 0.811\nsamples = 12\nvalue = [9, 3]\nclass = 0", fillcolor="#eeab7b"] ;
163 -> 165 ;
166 [label="entropy = 0.0\nsamples = 3\nvalue = [3, 0]\nclass = 0", fillcolor="#e58139"] ;
165 -> 166 ;
167 [label="Age <= 32.5\nentropy = 0.918\nsamples = 9\nvalue = [6, 3]\nclass = 0", fillcolor="#f2c09c"] ;
165 -> 167 ;
168 [label="entropy = 0.0\nsamples = 1\nvalue = [0, 1]\nclass = 1", fillcolor="#399de5"] ;
167 -> 168 ;
169 [label="Age <= 46.0\nentropy = 0.811\nsamples = 8\nvalue = [6, 2]\nclass = 0", fillcolor="#eeab7b"] ;
167 -> 169 ;
170 [label="Age <= 40.5\nentropy = 0.863\nsamples = 7\nvalue = [5, 2]\nclass = 0", fillcolor="#efb388"] ;
169 -> 170 ;
171 [label="Age <= 36.5\nentropy = 0.722\nsamples = 5\nvalue = [4, 1]\nclass = 0", fillcolor="#eca06a"] ;
170 -> 171 ;
172 [label="entropy = 0.918\nsamples = 3\nvalue = [2, 1]\nclass = 0", fillcolor="#f2c09c"] ;
171 -> 172 ;
173 [label="entropy = 0.0\nsamples = 2\nvalue = [2, 0]\nclass = 0", fillcolor="#e58139"] ;
171 -> 173 ;
174 [label="entropy = 1.0\nsamples = 2\nvalue = [1, 1]\nclass = 0", fillcolor="#ffffff"] ;
170 -> 174 ;
175 [label="entropy = 0.0\nsamples = 1\nvalue = [1, 0]\nclass = 0", fillcolor="#e58139"] ;
169 -> 175 ;
176 [label="Fare <= 22.887\nentropy = 0.246\nsamples = 49\nvalue = [47, 2]\nclass = 0", fillcolor="#e68641"] ;
122 -> 176 ;
177 [label="entropy = 0.0\nsamples = 26\nvalue = [26, 0]\nclass = 0", fillcolor="#e58139"] ;
176 -> 177 ;
178 [label="Fare <= 23.7\nentropy = 0.426\nsamples = 23\nvalue = [21, 2]\nclass = 0", fillcolor="#e78d4c"] ;
176 -> 178 ;
179 [label="entropy = 0.0\nsamples = 1\nvalue = [0, 1]\nclass = 1", fillcolor="#399de5"] ;
178 -> 179 ;
180 [label="Age <= 33.0\nentropy = 0.267\nsamples = 22\nvalue = [21, 1]\nclass = 0", fillcolor="#e68742"] ;
178 -> 180 ;
181 [label="Age <= 31.5\nentropy = 0.503\nsamples = 9\nvalue = [8, 1]\nclass = 0", fillcolor="#e89152"] ;
180 -> 181 ;
182 [label="entropy = 0.0\nsamples = 8\nvalue = [8, 0]\nclass = 0", fillcolor="#e58139"] ;
181 -> 182 ;
183 [label="entropy = 0.0\nsamples = 1\nvalue = [0, 1]\nclass = 1", fillcolor="#399de5"] ;
181 -> 183 ;
184 [label="entropy = 0.0\nsamples = 13\nvalue = [13, 0]\nclass = 0", fillcolor="#e58139"] ;
180 -> 184 ;
185 [label="Fare <= 20.233\nentropy = 0.896\nsamples = 16\nvalue = [11, 5]\nclass = 0", fillcolor="#f1ba93"] ;
121 -> 185 ;
186 [label="SibSp <= 0.5\nentropy = 0.994\nsamples = 11\nvalue = [6, 5]\nclass = 0", fillcolor="#fbeade"] ;
185 -> 186 ;
187 [label="Fare <= 13.369\nentropy = 0.811\nsamples = 8\nvalue = [6, 2]\nclass = 0", fillcolor="#eeab7b"] ;
186 -> 187 ;
188 [label="entropy = 0.0\nsamples = 3\nvalue = [3, 0]\nclass = 0", fillcolor="#e58139"] ;
187 -> 188 ;
189 [label="Fare <= 14.16\nentropy = 0.971\nsamples = 5\nvalue = [3, 2]\nclass = 0", fillcolor="#f6d5bd"] ;
187 -> 189 ;
190 [label="entropy = 0.0\nsamples = 1\nvalue = [0, 1]\nclass = 1", fillcolor="#399de5"] ;
189 -> 190 ;
191 [label="Age <= 27.85\nentropy = 0.811\nsamples = 4\nvalue = [3, 1]\nclass = 0", fillcolor="#eeab7b"] ;
189 -> 191 ;
192 [label="entropy = 1.0\nsamples = 2\nvalue = [1, 1]\nclass = 0", fillcolor="#ffffff"] ;
191 -> 192 ;
193 [label="entropy = 0.0\nsamples = 2\nvalue = [2, 0]\nclass = 0", fillcolor="#e58139"] ;
191 -> 193 ;
194 [label="entropy = 0.0\nsamples = 3\nvalue = [0, 3]\nclass = 1", fillcolor="#399de5"] ;
186 -> 194 ;
195 [label="entropy = 0.0\nsamples = 5\nvalue = [5, 0]\nclass = 0", fillcolor="#e58139"] ;
185 -> 195 ;
196 [label="Pclass <= 2.5\nentropy = 0.994\nsamples = 11\nvalue = [6, 5]\nclass = 0", fillcolor="#fbeade"] ;
120 -> 196 ;
197 [label="entropy = 0.0\nsamples = 4\nvalue = [4, 0]\nclass = 0", fillcolor="#e58139"] ;
196 -> 197 ;
198 [label="Age <= 30.85\nentropy = 0.863\nsamples = 7\nvalue = [2, 5]\nclass = 1", fillcolor="#88c4ef"] ;
196 -> 198 ;
199 [label="Age <= 27.0\nentropy = 0.971\nsamples = 5\nvalue = [2, 3]\nclass = 1", fillcolor="#bddef6"] ;
198 -> 199 ;
200 [label="entropy = 0.0\nsamples = 1\nvalue = [0, 1]\nclass = 1", fillcolor="#399de5"] ;
199 -> 200 ;
201 [label="Age <= 28.85\nentropy = 1.0\nsamples = 4\nvalue = [2, 2]\nclass = 0", fillcolor="#ffffff"] ;
199 -> 201 ;
202 [label="entropy = 0.0\nsamples = 1\nvalue = [1, 0]\nclass = 0", fillcolor="#e58139"] ;
201 -> 202 ;
203 [label="entropy = 0.918\nsamples = 3\nvalue = [1, 2]\nclass = 1", fillcolor="#9ccef2"] ;
201 -> 203 ;
204 [label="entropy = 0.0\nsamples = 2\nvalue = [0, 2]\nclass = 1", fillcolor="#399de5"] ;
198 -> 204 ;
205 [label="entropy = 0.0\nsamples = 14\nvalue = [14, 0]\nclass = 0", fillcolor="#e58139"] ;
117 -> 205 ;
206 [label="Pclass <= 2.5\nentropy = 0.828\nsamples = 253\nvalue = [66, 187]\nclass = 1", fillcolor="#7fc0ee"] ;
0 -> 206 [labeldistance=2.5, labelangle=-45, headlabel="False"] ;
207 [label="Embarked_S <= 0.5\nentropy = 0.318\nsamples = 139\nvalue = [8, 131]\nclass = 1", fillcolor="#45a3e7"] ;
206 -> 207 ;
208 [label="entropy = 0.0\nsamples = 45\nvalue = [0, 45]\nclass = 1", fillcolor="#399de5"] ;
207 -> 208 ;
209 [label="Age <= 27.5\nentropy = 0.42\nsamples = 94\nvalue = [8, 86]\nclass = 1", fillcolor="#4ba6e7"] ;
207 -> 209 ;
210 [label="Age <= 23.5\nentropy = 0.625\nsamples = 32\nvalue = [5, 27]\nclass = 1", fillcolor="#5eafea"] ;
209 -> 210 ;
211 [label="Age <= 3.0\nentropy = 0.267\nsamples = 22\nvalue = [1, 21]\nclass = 1", fillcolor="#42a2e6"] ;
210 -> 211 ;
212 [label="entropy = 1.0\nsamples = 2\nvalue = [1, 1]\nclass = 0", fillcolor="#ffffff"] ;
211 -> 212 ;
213 [label="entropy = 0.0\nsamples = 20\nvalue = [0, 20]\nclass = 1", fillcolor="#399de5"] ;
211 -> 213 ;
214 [label="Fare <= 115.2\nentropy = 0.971\nsamples = 10\nvalue = [4, 6]\nclass = 1", fillcolor="#bddef6"] ;
210 -> 214 ;
215 [label="Fare <= 28.0\nentropy = 0.918\nsamples = 9\nvalue = [3, 6]\nclass = 1", fillcolor="#9ccef2"] ;
214 -> 215 ;
216 [label="SibSp <= 0.5\nentropy = 1.0\nsamples = 6\nvalue = [3, 3]\nclass = 0", fillcolor="#ffffff"] ;
215 -> 216 ;
217 [label="Age <= 24.5\nentropy = 0.811\nsamples = 4\nvalue = [1, 3]\nclass = 1", fillcolor="#7bbeee"] ;
216 -> 217 ;
218 [label="entropy = 1.0\nsamples = 2\nvalue = [1, 1]\nclass = 0", fillcolor="#ffffff"] ;
217 -> 218 ;
219 [label="entropy = 0.0\nsamples = 2\nvalue = [0, 2]\nclass = 1", fillcolor="#399de5"] ;
217 -> 219 ;
220 [label="entropy = 0.0\nsamples = 2\nvalue = [2, 0]\nclass = 0", fillcolor="#e58139"] ;
216 -> 220 ;
221 [label="entropy = 0.0\nsamples = 3\nvalue = [0, 3]\nclass = 1", fillcolor="#399de5"] ;
215 -> 221 ;
222 [label="entropy = 0.0\nsamples = 1\nvalue = [1, 0]\nclass = 0", fillcolor="#e58139"] ;
214 -> 222 ;
223 [label="Age <= 37.0\nentropy = 0.28\nsamples = 62\nvalue = [3, 59]\nclass = 1", fillcolor="#43a2e6"] ;
209 -> 223 ;
224 [label="entropy = 0.0\nsamples = 33\nvalue = [0, 33]\nclass = 1", fillcolor="#399de5"] ;
223 -> 224 ;
225 [label="Age <= 38.5\nentropy = 0.48\nsamples = 29\nvalue = [3, 26]\nclass = 1", fillcolor="#50a8e8"] ;
223 -> 225 ;
226 [label="entropy = 0.0\nsamples = 1\nvalue = [1, 0]\nclass = 0", fillcolor="#e58139"] ;
225 -> 226 ;
227 [label="Fare <= 26.125\nentropy = 0.371\nsamples = 28\nvalue = [2, 26]\nclass = 1", fillcolor="#48a5e7"] ;
225 -> 227 ;
228 [label="Age <= 56.0\nentropy = 0.592\nsamples = 14\nvalue = [2, 12]\nclass = 1", fillcolor="#5aade9"] ;
227 -> 228 ;
229 [label="Fare <= 25.965\nentropy = 0.391\nsamples = 13\nvalue = [1, 12]\nclass = 1", fillcolor="#49a5e7"] ;
228 -> 229 ;
230 [label="entropy = 0.0\nsamples = 11\nvalue = [0, 11]\nclass = 1", fillcolor="#399de5"] ;
229 -> 230 ;
231 [label="entropy = 1.0\nsamples = 2\nvalue = [1, 1]\nclass = 0", fillcolor="#ffffff"] ;
229 -> 231 ;
232 [label="entropy = 0.0\nsamples = 1\nvalue = [1, 0]\nclass = 0", fillcolor="#e58139"] ;
228 -> 232 ;
233 [label="entropy = 0.0\nsamples = 14\nvalue = [0, 14]\nclass = 1", fillcolor="#399de5"] ;
227 -> 233 ;
234 [label="Fare <= 23.35\nentropy = 1.0\nsamples = 114\nvalue = [58, 56]\nclass = 0", fillcolor="#fefbf8"] ;
206 -> 234 ;
235 [label="Age <= 36.5\nentropy = 0.986\nsamples = 95\nvalue = [41, 54]\nclass = 1", fillcolor="#cfe7f9"] ;
234 -> 235 ;
236 [label="Fare <= 21.55\nentropy = 0.97\nsamples = 88\nvalue = [35, 53]\nclass = 1", fillcolor="#bcdef6"] ;
235 -> 236 ;
237 [label="Fare <= 20.8\nentropy = 0.98\nsamples = 84\nvalue = [35, 49]\nclass = 1", fillcolor="#c6e3f8"] ;
236 -> 237 ;
238 [label="Fare <= 18.629\nentropy = 0.968\nsamples = 81\nvalue = [32, 49]\nclass = 1", fillcolor="#baddf6"] ;
237 -> 238 ;
239 [label="Fare <= 7.888\nentropy = 0.982\nsamples = 76\nvalue = [32, 44]\nclass = 1", fillcolor="#c9e4f8"] ;
238 -> 239 ;
240 [label="Age <= 30.1\nentropy = 0.874\nsamples = 34\nvalue = [10, 24]\nclass = 1", fillcolor="#8bc6f0"] ;
239 -> 240 ;
241 [label="Fare <= 6.987\nentropy = 0.811\nsamples = 32\nvalue = [8, 24]\nclass = 1", fillcolor="#7bbeee"] ;
240 -> 241 ;
242 [label="entropy = 0.0\nsamples = 1\nvalue = [1, 0]\nclass = 0", fillcolor="#e58139"] ;
241 -> 242 ;
243 [label="Age <= 14.5\nentropy = 0.771\nsamples = 31\nvalue = [7, 24]\nclass = 1", fillcolor="#73baed"] ;
241 -> 243 ;
244 [label="entropy = 0.0\nsamples = 1\nvalue = [1, 0]\nclass = 0", fillcolor="#e58139"] ;
243 -> 244 ;
245 [label="Fare <= 7.781\nentropy = 0.722\nsamples = 30\nvalue = [6, 24]\nclass = 1", fillcolor="#6ab6ec"] ;
243 -> 245 ;
246 [label="Fare <= 7.763\nentropy = 0.845\nsamples = 22\nvalue = [6, 16]\nclass = 1", fillcolor="#83c2ef"] ;
245 -> 246 ;
247 [label="Parch <= 1.0\nentropy = 0.722\nsamples = 20\nvalue = [4, 16]\nclass = 1", fillcolor="#6ab6ec"] ;
246 -> 247 ;
248 [label="Fare <= 7.523\nentropy = 0.629\nsamples = 19\nvalue = [3, 16]\nclass = 1", fillcolor="#5eafea"] ;
247 -> 248 ;
249 [label="entropy = 0.0\nsamples = 4\nvalue = [0, 4]\nclass = 1", fillcolor="#399de5"] ;
248 -> 249 ;
250 [label="Fare <= 7.6\nentropy = 0.722\nsamples = 15\nvalue = [3, 12]\nclass = 1", fillcolor="#6ab6ec"] ;
248 -> 250 ;
251 [label="entropy = 1.0\nsamples = 2\nvalue = [1, 1]\nclass = 0", fillcolor="#ffffff"] ;
250 -> 251 ;
252 [label="Fare <= 7.744\nentropy = 0.619\nsamples = 13\nvalue = [2, 11]\nclass = 1", fillcolor="#5dafea"] ;
250 -> 252 ;
253 [label="entropy = 0.0\nsamples = 4\nvalue = [0, 4]\nclass = 1", fillcolor="#399de5"] ;
252 -> 253 ;
254 [label="Age <= 21.5\nentropy = 0.764\nsamples = 9\nvalue = [2, 7]\nclass = 1", fillcolor="#72b9ec"] ;
252 -> 254 ;
255 [label="entropy = 1.0\nsamples = 2\nvalue = [1, 1]\nclass = 0", fillcolor="#ffffff"] ;
254 -> 255 ;
256 [label="Embarked_Q <= 0.5\nentropy = 0.592\nsamples = 7\nvalue = [1, 6]\nclass = 1", fillcolor="#5aade9"] ;
254 -> 256 ;
257 [label="entropy = 0.0\nsamples = 1\nvalue = [0, 1]\nclass = 1", fillcolor="#399de5"] ;
256 -> 257 ;
258 [label="entropy = 0.65\nsamples = 6\nvalue = [1, 5]\nclass = 1", fillcolor="#61b1ea"] ;
256 -> 258 ;
259 [label="entropy = 0.0\nsamples = 1\nvalue = [1, 0]\nclass = 0", fillcolor="#e58139"] ;
247 -> 259 ;
260 [label="entropy = 0.0\nsamples = 2\nvalue = [2, 0]\nclass = 0", fillcolor="#e58139"] ;
246 -> 260 ;
261 [label="entropy = 0.0\nsamples = 8\nvalue = [0, 8]\nclass = 1", fillcolor="#399de5"] ;
245 -> 261 ;
262 [label="entropy = 0.0\nsamples = 2\nvalue = [2, 0]\nclass = 0", fillcolor="#e58139"] ;
240 -> 262 ;
263 [label="Fare <= 10.825\nentropy = 0.998\nsamples = 42\nvalue = [22, 20]\nclass = 0", fillcolor="#fdf4ed"] ;
239 -> 263 ;
264 [label="Age <= 19.0\nentropy = 0.852\nsamples = 18\nvalue = [13, 5]\nclass = 0", fillcolor="#efb185"] ;
263 -> 264 ;
265 [label="Age <= 8.5\nentropy = 0.811\nsamples = 4\nvalue = [1, 3]\nclass = 1", fillcolor="#7bbeee"] ;
264 -> 265 ;
266 [label="entropy = 0.0\nsamples = 1\nvalue = [1, 0]\nclass = 0", fillcolor="#e58139"] ;
265 -> 266 ;
267 [label="entropy = 0.0\nsamples = 3\nvalue = [0, 3]\nclass = 1", fillcolor="#399de5"] ;
265 -> 267 ;
268 [label="Fare <= 7.988\nentropy = 0.592\nsamples = 14\nvalue = [12, 2]\nclass = 0", fillcolor="#e9965a"] ;
264 -> 268 ;
269 [label="Age <= 25.5\nentropy = 0.971\nsamples = 5\nvalue = [3, 2]\nclass = 0", fillcolor="#f6d5bd"] ;
268 -> 269 ;
270 [label="entropy = 0.0\nsamples = 2\nvalue = [2, 0]\nclass = 0", fillcolor="#e58139"] ;
269 -> 270 ;
271 [label="Age <= 27.5\nentropy = 0.918\nsamples = 3\nvalue = [1, 2]\nclass = 1", fillcolor="#9ccef2"] ;
269 -> 271 ;
272 [label="entropy = 0.0\nsamples = 2\nvalue = [0, 2]\nclass = 1", fillcolor="#399de5"] ;
271 -> 272 ;
273 [label="entropy = 0.0\nsamples = 1\nvalue = [1, 0]\nclass = 0", fillcolor="#e58139"] ;
271 -> 273 ;
274 [label="entropy = 0.0\nsamples = 9\nvalue = [9, 0]\nclass = 0", fillcolor="#e58139"] ;
268 -> 274 ;
275 [label="Embarked_C <= 0.5\nentropy = 0.954\nsamples = 24\nvalue = [9, 15]\nclass = 1", fillcolor="#b0d8f5"] ;
263 -> 275 ;
276 [label="Fare <= 17.7\nentropy = 0.672\nsamples = 17\nvalue = [3, 14]\nclass = 1", fillcolor="#63b2eb"] ;
275 -> 276 ;
277 [label="Age <= 31.0\nentropy = 0.353\nsamples = 15\nvalue = [1, 14]\nclass = 1", fillcolor="#47a4e7"] ;
276 -> 277 ;
278 [label="entropy = 0.0\nsamples = 12\nvalue = [0, 12]\nclass = 1", fillcolor="#399de5"] ;
277 -> 278 ;
279 [label="Embarked_S <= 0.5\nentropy = 0.918\nsamples = 3\nvalue = [1, 2]\nclass = 1", fillcolor="#9ccef2"] ;
277 -> 279 ;
280 [label="entropy = 0.0\nsamples = 1\nvalue = [1, 0]\nclass = 0", fillcolor="#e58139"] ;
279 -> 280 ;
281 [label="entropy = 0.0\nsamples = 2\nvalue = [0, 2]\nclass = 1", fillcolor="#399de5"] ;
279 -> 281 ;
282 [label="entropy = 0.0\nsamples = 2\nvalue = [2, 0]\nclass = 0", fillcolor="#e58139"] ;
276 -> 282 ;
283 [label="Age <= 16.0\nentropy = 0.592\nsamples = 7\nvalue = [6, 1]\nclass = 0", fillcolor="#e9965a"] ;
275 -> 283 ;
284 [label="entropy = 1.0\nsamples = 2\nvalue = [1, 1]\nclass = 0", fillcolor="#ffffff"] ;
283 -> 284 ;
285 [label="entropy = 0.0\nsamples = 5\nvalue = [5, 0]\nclass = 0", fillcolor="#e58139"] ;
283 -> 285 ;
286 [label="entropy = 0.0\nsamples = 5\nvalue = [0, 5]\nclass = 1", fillcolor="#399de5"] ;
238 -> 286 ;
287 [label="entropy = 0.0\nsamples = 3\nvalue = [3, 0]\nclass = 0", fillcolor="#e58139"] ;
237 -> 287 ;
288 [label="entropy = 0.0\nsamples = 4\nvalue = [0, 4]\nclass = 1", fillcolor="#399de5"] ;
236 -> 288 ;
289 [label="Age <= 55.0\nentropy = 0.592\nsamples = 7\nvalue = [6, 1]\nclass = 0", fillcolor="#e9965a"] ;
235 -> 289 ;
290 [label="entropy = 0.0\nsamples = 6\nvalue = [6, 0]\nclass = 0", fillcolor="#e58139"] ;
289 -> 290 ;
291 [label="entropy = 0.0\nsamples = 1\nvalue = [0, 1]\nclass = 1", fillcolor="#399de5"] ;
289 -> 291 ;
292 [label="Embarked_Q <= 0.5\nentropy = 0.485\nsamples = 19\nvalue = [17, 2]\nclass = 0", fillcolor="#e89050"] ;
234 -> 292 ;
293 [label="Age <= 5.5\nentropy = 0.31\nsamples = 18\nvalue = [17, 1]\nclass = 0", fillcolor="#e78845"] ;
292 -> 293 ;
294 [label="Age <= 3.5\nentropy = 0.918\nsamples = 3\nvalue = [2, 1]\nclass = 0", fillcolor="#f2c09c"] ;
293 -> 294 ;
295 [label="entropy = 0.0\nsamples = 2\nvalue = [2, 0]\nclass = 0", fillcolor="#e58139"] ;
294 -> 295 ;
296 [label="entropy = 0.0\nsamples = 1\nvalue = [0, 1]\nclass = 1", fillcolor="#399de5"] ;
294 -> 296 ;
297 [label="entropy = 0.0\nsamples = 15\nvalue = [15, 0]\nclass = 0", fillcolor="#e58139"] ;
293 -> 297 ;
298 [label="entropy = 0.0\nsamples = 1\nvalue = [0, 1]\nclass = 1", fillcolor="#399de5"] ;
292 -> 298 ;
}